digraph Tree {
node [shape=box, style="filled, rounded", color="black", fontname="helvetica"] ;
edge [fontname="helvetica"] ;
0 [label="SleepHours_Binned <= 4.925\ngini = 0.739\nsamples = 2405\nvalue = [214, 465, 986, 408, 332]\nclass = Satisfied", fillcolor="#caf8ef"] ;
1 [label="gini = 0.756\nsamples = 35\nvalue = [2, 5, 11, 7, 10]\nclass = Satisfied", fillcolor="#f7fefd"] ;
0 -> 1 [labeldistance=2.5, labelangle=45, headlabel="True"] ;
2 [label="Stress_Binned <= 4.145\ngini = 0.738\nsamples = 2370\nvalue = [212.0, 460.0, 975.0, 401.0, 322.0]\nclass = Satisfied", fillcolor="#caf8ef"] ;
0 -> 2 [labeldistance=2.5, labelangle=-45, headlabel="False"] ;
3 [label="SleepHours_Binned <= 5.588\ngini = 0.734\nsamples = 2307\nvalue = [208, 441, 967, 394, 297]\nclass = Satisfied", fillcolor="#c7f8ef"] ;
2 -> 3 ;
4 [label="Workload_Binned <= 3.544\ngini = 0.773\nsamples = 297\nvalue = [22, 62, 87, 53, 73]\nclass = Satisfied", fillcolor="#f3fdfb"] ;
3 -> 4 ;
5 [label="Workload_Binned <= 1.23\ngini = 0.751\nsamples = 181\nvalue = [13, 35, 68, 37, 28]\nclass = Satisfied", fillcolor="#d4f9f3"] ;
4 -> 5 ;
6 [label="gini = 0.709\nsamples = 54\nvalue = [6, 5, 22, 17, 4]\nclass = Satisfied", fillcolor="#e4fbf7"] ;
5 -> 6 ;
7 [label="Stress_Binned <= 2.733\ngini = 0.749\nsamples = 127\nvalue = [7, 30, 46, 20, 24]\nclass = Satisfied", fillcolor="#defbf5"] ;
5 -> 7 ;
8 [label="Workload_Binned <= 2.402\ngini = 0.724\nsamples = 103\nvalue = [6.0, 21.0, 44.0, 16.0, 16.0]\nclass = Satisfied", fillcolor="#c7f8ef"] ;
7 -> 8 ;
9 [label="gini = 0.727\nsamples = 43\nvalue = [2.0, 8.0, 18.0, 8.0, 7.0]\nclass = Satisfied", fillcolor="#c6f8ee"] ;
8 -> 9 ;
10 [label="Stress_Binned <= 1.529\ngini = 0.721\nsamples = 60\nvalue = [4, 13, 26, 8, 9]\nclass = Satisfied", fillcolor="#c8f8ef"] ;
8 -> 10 ;
11 [label="gini = 0.657\nsamples = 39\nvalue = [2, 7, 20, 2, 8]\nclass = Satisfied", fillcolor="#b2f5e9"] ;
10 -> 11 ;
12 [label="gini = 0.744\nsamples = 21\nvalue = [2, 6, 6, 6, 1]\nclass = Neutral", fillcolor="#ffffff"] ;
10 -> 12 ;
13 [label="gini = 0.712\nsamples = 24\nvalue = [1, 9, 2, 4, 8]\nclass = Neutral", fillcolor="#f7fdf3"] ;
7 -> 13 ;
14 [label="Workload_Binned <= 4.054\ngini = 0.743\nsamples = 116\nvalue = [9, 27, 19, 16, 45]\nclass = Very dissatisfied", fillcolor="#fad7f2"] ;
4 -> 14 ;
15 [label="Stress_Binned <= 1.842\ngini = 0.768\nsamples = 57\nvalue = [5, 14, 12, 8, 18]\nclass = Very dissatisfied", fillcolor="#fdedf9"] ;
14 -> 15 ;
16 [label="gini = 0.778\nsamples = 31\nvalue = [4, 9, 8, 4, 6]\nclass = Neutral", fillcolor="#f9fef6"] ;
15 -> 16 ;
17 [label="gini = 0.701\nsamples = 26\nvalue = [1, 5, 4, 4, 12]\nclass = Very dissatisfied", fillcolor="#f6bdea"] ;
15 -> 17 ;
18 [label="Stress_Binned <= 2.777\ngini = 0.705\nsamples = 59\nvalue = [4, 13, 7, 8, 27]\nclass = Very dissatisfied", fillcolor="#f7c3ec"] ;
14 -> 18 ;
19 [label="gini = 0.763\nsamples = 42\nvalue = [4, 11, 7, 6, 14]\nclass = Very dissatisfied", fillcolor="#fcecf9"] ;
18 -> 19 ;
20 [label="gini = 0.388\nsamples = 17\nvalue = [0, 2, 0, 2, 13]\nclass = Very dissatisfied", fillcolor="#ec6ed1"] ;
18 -> 20 ;
21 [label="SleepHours_Binned <= 8.221\ngini = 0.723\nsamples = 2010\nvalue = [186, 379, 880, 341, 224]\nclass = Satisfied", fillcolor="#c2f7ed"] ;
3 -> 21 ;
22 [label="SleepHours_Binned <= 6.008\ngini = 0.722\nsamples = 1949\nvalue = [181, 375, 857, 315, 221]\nclass = Satisfied", fillcolor="#c2f7ed"] ;
21 -> 22 ;
23 [label="Workload_Binned <= 4.089\ngini = 0.741\nsamples = 803\nvalue = [78.0, 177.0, 322.0, 108.0, 118.0]\nclass = Satisfied", fillcolor="#d1f9f2"] ;
22 -> 23 ;
24 [label="Stress_Binned <= 2.518\ngini = 0.723\nsamples = 656\nvalue = [66, 126, 289, 97, 78]\nclass = Satisfied", fillcolor="#c2f7ed"] ;
23 -> 24 ;
25 [label="Workload_Binned <= 1.21\ngini = 0.706\nsamples = 531\nvalue = [54, 102, 245, 89, 41]\nclass = Satisfied", fillcolor="#bdf6ec"] ;
24 -> 25 ;
26 [label="Stress_Binned <= 1.402\ngini = 0.675\nsamples = 149\nvalue = [19, 26, 73, 29, 2]\nclass = Satisfied", fillcolor="#b6f5ea"] ;
25 -> 26 ;
27 [label="gini = 0.659\nsamples = 117\nvalue = [14.0, 17.0, 60.0, 24.0, 2.0]\nclass = Satisfied", fillcolor="#b2f5e9"] ;
26 -> 27 ;
28 [label="gini = 0.707\nsamples = 32\nvalue = [5, 9, 13, 5, 0]\nclass = Satisfied", fillcolor="#ddfaf5"] ;
26 -> 28 ;
29 [label="Workload_Binned <= 2.955\ngini = 0.714\nsamples = 382\nvalue = [35, 76, 172, 60, 39]\nclass = Satisfied", fillcolor="#c1f7ed"] ;
25 -> 29 ;
30 [label="Stress_Binned <= 1.451\ngini = 0.672\nsamples = 133\nvalue = [7, 27, 64, 30, 5]\nclass = Satisfied", fillcolor="#bef6ec"] ;
29 -> 30 ;
31 [label="gini = 0.663\nsamples = 100\nvalue = [4, 19, 49, 24, 4]\nclass = Satisfied", fillcolor="#bef6ec"] ;
30 -> 31 ;
32 [label="gini = 0.692\nsamples = 33\nvalue = [3, 8, 15, 6, 1]\nclass = Satisfied", fillcolor="#c8f8ef"] ;
30 -> 32 ;
33 [label="Workload_Binned <= 3.281\ngini = 0.727\nsamples = 249\nvalue = [28, 49, 108, 30, 34]\nclass = Satisfied", fillcolor="#c5f7ee"] ;
29 -> 33 ;
34 [label="Stress_Binned <= 1.264\ngini = 0.701\nsamples = 124\nvalue = [18, 21, 59, 10, 16]\nclass = Satisfied", fillcolor="#b6f5ea"] ;
33 -> 34 ;
35 [label="gini = 0.687\nsamples = 101\nvalue = [13, 18, 50, 9, 11]\nclass = Satisfied", fillcolor="#b3f5e9"] ;
34 -> 35 ;
36 [label="gini = 0.733\nsamples = 23\nvalue = [5, 3, 9, 1, 5]\nclass = Satisfied", fillcolor="#d3f9f2"] ;
34 -> 36 ;
37 [label="Stress_Binned <= 1.555\ngini = 0.743\nsamples = 125\nvalue = [10, 28, 49, 20, 18]\nclass = Satisfied", fillcolor="#d4f9f2"] ;
33 -> 37 ;
38 [label="gini = 0.738\nsamples = 99\nvalue = [8, 24, 39, 17, 11]\nclass = Satisfied", fillcolor="#d7faf3"] ;
37 -> 38 ;
39 [label="gini = 0.737\nsamples = 26\nvalue = [2, 4, 10, 3, 7]\nclass = Satisfied", fillcolor="#e0fbf6"] ;
37 -> 39 ;
40 [label="Stress_Binned <= 3.511\ngini = 0.738\nsamples = 125\nvalue = [12, 24, 44, 8, 37]\nclass = Satisfied", fillcolor="#effdfa"] ;
24 -> 40 ;
41 [label="Workload_Binned <= 2.801\ngini = 0.742\nsamples = 90\nvalue = [10.0, 16.0, 32.0, 6.0, 26.0]\nclass = Satisfied", fillcolor="#ecfdfa"] ;
40 -> 41 ;
42 [label="Workload_Binned <= 1.438\ngini = 0.646\nsamples = 42\nvalue = [3.0, 5.0, 23.0, 5.0, 6.0]\nclass = Satisfied", fillcolor="#a1f3e4"] ;
41 -> 42 ;
43 [label="gini = 0.667\nsamples = 27\nvalue = [2, 3, 14, 3, 5]\nclass = Satisfied", fillcolor="#aef4e7"] ;
42 -> 43 ;
44 [label="gini = 0.596\nsamples = 15\nvalue = [1, 2, 9, 2, 1]\nclass = Satisfied", fillcolor="#94f1e0"] ;
42 -> 44 ;
45 [label="Workload_Binned <= 3.282\ngini = 0.717\nsamples = 48\nvalue = [7, 11, 9, 1, 20]\nclass = Very dissatisfied", fillcolor="#f9cff0"] ;
41 -> 45 ;
46 [label="gini = 0.75\nsamples = 16\nvalue = [3, 3, 6, 1, 3]\nclass = Satisfied", fillcolor="#d1f9f2"] ;
45 -> 46 ;
47 [label="gini = 0.631\nsamples = 32\nvalue = [4, 8, 3, 0, 17]\nclass = Very dissatisfied", fillcolor="#f5b5e7"] ;
45 -> 47 ;
48 [label="gini = 0.725\nsamples = 35\nvalue = [2, 8, 12, 2, 11]\nclass = Satisfied", fillcolor="#f7fefd"] ;
40 -> 48 ;
49 [label="gini = 0.743\nsamples = 147\nvalue = [12.0, 51.0, 33.0, 11.0, 40.0]\nclass = Neutral", fillcolor="#f1fceb"] ;
23 -> 49 ;
50 [label="Stress_Binned <= 1.753\ngini = 0.703\nsamples = 1146\nvalue = [103, 198, 535, 207, 103]\nclass = Satisfied", fillcolor="#baf6eb"] ;
22 -> 50 ;
51 [label="SleepHours_Binned <= 7.348\ngini = 0.67\nsamples = 698\nvalue = [63, 99, 355, 138, 43]\nclass = Satisfied", fillcolor="#b2f5e9"] ;
50 -> 51 ;
52 [label="Workload_Binned <= 3.71\ngini = 0.677\nsamples = 487\nvalue = [48, 70, 247, 84, 38]\nclass = Satisfied", fillcolor="#aff4e8"] ;
51 -> 52 ;
53 [label="Workload_Binned <= 2.194\ngini = 0.641\nsamples = 281\nvalue = [27, 35, 151, 59, 9]\nclass = Satisfied", fillcolor="#adf4e7"] ;
52 -> 53 ;
54 [label="Workload_Binned <= 1.664\ngini = 0.594\nsamples = 194\nvalue = [16, 18, 114, 41, 5]\nclass = Satisfied", fillcolor="#a1f3e3"] ;
53 -> 54 ;
55 [label="gini = 0.628\nsamples = 108\nvalue = [12.0, 10.0, 58.0, 27.0, 1.0]\nclass = Satisfied", fillcolor="#b3f5e9"] ;
54 -> 55 ;
56 [label="gini = 0.537\nsamples = 86\nvalue = [4.0, 8.0, 56.0, 14.0, 4.0]\nclass = Satisfied", fillcolor="#8cf0dd"] ;
54 -> 56 ;
57 [label="gini = 0.72\nsamples = 87\nvalue = [11.0, 17.0, 37.0, 18.0, 4.0]\nclass = Satisfied", fillcolor="#c8f8ef"] ;
53 -> 57 ;
58 [label="Workload_Binned <= 4.754\ngini = 0.709\nsamples = 206\nvalue = [21, 35, 96, 25, 29]\nclass = Satisfied", fillcolor="#b8f6ea"] ;
52 -> 58 ;
59 [label="gini = 0.677\nsamples = 110\nvalue = [11, 19, 55, 19, 6]\nclass = Satisfied", fillcolor="#b1f5e8"] ;
58 -> 59 ;
60 [label="gini = 0.718\nsamples = 96\nvalue = [10, 16, 41, 6, 23]\nclass = Satisfied", fillcolor="#cef9f1"] ;
58 -> 60 ;
61 [label="Workload_Binned <= 3.523\ngini = 0.648\nsamples = 211\nvalue = [15.0, 29.0, 108.0, 54.0, 5.0]\nclass = Satisfied", fillcolor="#bbf6eb"] ;
51 -> 61 ;
62 [label="Workload_Binned <= 2.709\ngini = 0.593\nsamples = 128\nvalue = [7, 12, 72, 36, 1]\nclass = Satisfied", fillcolor="#b2f5e8"] ;
61 -> 62 ;
63 [label="Workload_Binned <= 1.969\ngini = 0.604\nsamples = 88\nvalue = [6, 6, 47, 28, 1]\nclass = Satisfied", fillcolor="#c0f7ed"] ;
62 -> 63 ;
64 [label="gini = 0.606\nsamples = 35\nvalue = [0, 5, 17, 13, 0]\nclass = Satisfied", fillcolor="#dbfaf4"] ;
63 -> 64 ;
65 [label="gini = 0.586\nsamples = 53\nvalue = [6, 1, 30, 15, 1]\nclass = Satisfied", fillcolor="#b1f5e8"] ;
63 -> 65 ;
66 [label="gini = 0.546\nsamples = 40\nvalue = [1, 6, 25, 8, 0]\nclass = Satisfied", fillcolor="#96f1e0"] ;
62 -> 66 ;
67 [label="Workload_Binned <= 4.393\ngini = 0.711\nsamples = 83\nvalue = [8, 17, 36, 18, 4]\nclass = Satisfied", fillcolor="#c8f8ef"] ;
61 -> 67 ;
68 [label="gini = 0.736\nsamples = 42\nvalue = [4, 8, 16, 11, 3]\nclass = Satisfied", fillcolor="#dffbf6"] ;
67 -> 68 ;
69 [label="gini = 0.675\nsamples = 41\nvalue = [4.0, 9.0, 20.0, 7.0, 1.0]\nclass = Satisfied", fillcolor="#bbf6eb"] ;
67 -> 69 ;
70 [label="Workload_Binned <= 1.479\ngini = 0.74\nsamples = 448\nvalue = [40, 99, 180, 69, 60]\nclass = Satisfied", fillcolor="#d1f9f2"] ;
50 -> 70 ;
71 [label="Stress_Binned <= 2.995\ngini = 0.687\nsamples = 95\nvalue = [7.0, 17.0, 45.0, 21.0, 5.0]\nclass = Satisfied", fillcolor="#bff7ec"] ;
70 -> 71 ;
72 [label="gini = 0.623\nsamples = 39\nvalue = [1, 9, 21, 7, 1]\nclass = Satisfied", fillcolor="#b0f5e8"] ;
71 -> 72 ;
73 [label="SleepHours_Binned <= 7.827\ngini = 0.717\nsamples = 56\nvalue = [6, 8, 24, 14, 4]\nclass = Satisfied", fillcolor="#d0f9f1"] ;
71 -> 73 ;
74 [label="Stress_Binned <= 3.349\ngini = 0.738\nsamples = 36\nvalue = [5, 5, 15, 7, 4]\nclass = Satisfied", fillcolor="#c8f8ef"] ;
73 -> 74 ;
75 [label="gini = 0.754\nsamples = 17\nvalue = [3, 3, 6, 4, 1]\nclass = Satisfied", fillcolor="#e1fbf6"] ;
74 -> 75 ;
76 [label="gini = 0.704\nsamples = 19\nvalue = [2, 2, 9, 3, 3]\nclass = Satisfied", fillcolor="#b5f5e9"] ;
74 -> 76 ;
77 [label="gini = 0.65\nsamples = 20\nvalue = [1, 3, 9, 7, 0]\nclass = Satisfied", fillcolor="#e1fbf6"] ;
73 -> 77 ;
78 [label="Stress_Binned <= 3.152\ngini = 0.748\nsamples = 353\nvalue = [33.0, 82.0, 135.0, 48.0, 55.0]\nclass = Satisfied", fillcolor="#d8faf4"] ;
70 -> 78 ;
79 [label="Stress_Binned <= 2.262\ngini = 0.746\nsamples = 299\nvalue = [31, 68, 117, 42, 41]\nclass = Satisfied", fillcolor="#d5f9f3"] ;
78 -> 79 ;
80 [label="SleepHours_Binned <= 7.448\ngini = 0.713\nsamples = 157\nvalue = [12.0, 31.0, 71.0, 24.0, 19.0]\nclass = Satisfied", fillcolor="#c0f7ed"] ;
79 -> 80 ;
81 [label="Workload_Binned <= 2.695\ngini = 0.678\nsamples = 105\nvalue = [7, 23, 52, 11, 12]\nclass = Satisfied", fillcolor="#b9f6ea"] ;
80 -> 81 ;
82 [label="gini = 0.575\nsamples = 33\nvalue = [1, 3, 20, 7, 2]\nclass = Satisfied", fillcolor="#9cf2e2"] ;
81 -> 82 ;
83 [label="Workload_Binned <= 4.563\ngini = 0.696\nsamples = 72\nvalue = [6, 20, 32, 4, 10]\nclass = Satisfied", fillcolor="#d1f9f2"] ;
81 -> 83 ;
84 [label="Workload_Binned <= 3.35\ngini = 0.676\nsamples = 53\nvalue = [5, 13, 26, 4, 5]\nclass = Satisfied", fillcolor="#bff7ec"] ;
83 -> 84 ;
85 [label="gini = 0.604\nsamples = 32\nvalue = [1, 8, 18, 4, 1]\nclass = Satisfied", fillcolor="#acf4e7"] ;
84 -> 85 ;
86 [label="gini = 0.726\nsamples = 21\nvalue = [4, 5, 8, 0, 4]\nclass = Satisfied", fillcolor="#dafaf4"] ;
84 -> 86 ;
87 [label="gini = 0.693\nsamples = 19\nvalue = [1, 7, 6, 0, 5]\nclass = Neutral", fillcolor="#f5fdf0"] ;
83 -> 87 ;
88 [label="gini = 0.753\nsamples = 52\nvalue = [5, 8, 19, 13, 7]\nclass = Satisfied", fillcolor="#e1fbf6"] ;
80 -> 88 ;
89 [label="Workload_Binned <= 3.939\ngini = 0.769\nsamples = 142\nvalue = [19, 37, 46, 18, 22]\nclass = Satisfied", fillcolor="#eefdfa"] ;
79 -> 89 ;
90 [label="Workload_Binned <= 2.025\ngini = 0.727\nsamples = 75\nvalue = [11, 16, 32, 10, 6]\nclass = Satisfied", fillcolor="#c9f8ef"] ;
89 -> 90 ;
91 [label="gini = 0.658\nsamples = 41\nvalue = [6, 9, 21, 4, 1]\nclass = Satisfied", fillcolor="#b5f5e9"] ;
90 -> 91 ;
92 [label="gini = 0.779\nsamples = 34\nvalue = [5, 7, 11, 6, 5]\nclass = Satisfied", fillcolor="#e2fbf6"] ;
90 -> 92 ;
93 [label="SleepHours_Binned <= 7.616\ngini = 0.773\nsamples = 67\nvalue = [8, 21, 14, 8, 16]\nclass = Neutral", fillcolor="#f2fcec"] ;
89 -> 93 ;
94 [label="Workload_Binned <= 4.545\ngini = 0.781\nsamples = 46\nvalue = [7.0, 11.0, 10.0, 5.0, 13.0]\nclass = Very dissatisfied", fillcolor="#fef4fb"] ;
93 -> 94 ;
95 [label="gini = 0.764\nsamples = 23\nvalue = [4, 4, 5, 2, 8]\nclass = Very dissatisfied", fillcolor="#fbdef4"] ;
94 -> 95 ;
96 [label="gini = 0.779\nsamples = 23\nvalue = [3, 7, 5, 3, 5]\nclass = Neutral", fillcolor="#f0fce9"] ;
94 -> 96 ;
97 [label="gini = 0.694\nsamples = 21\nvalue = [1, 10, 4, 3, 3]\nclass = Neutral", fillcolor="#d0f6b9"] ;
93 -> 97 ;
98 [label="SleepHours_Binned <= 7.237\ngini = 0.741\nsamples = 54\nvalue = [2, 14, 18, 6, 14]\nclass = Satisfied", fillcolor="#ebfcf9"] ;
78 -> 98 ;
99 [label="Workload_Binned <= 3.825\ngini = 0.738\nsamples = 38\nvalue = [2, 10, 12, 3, 11]\nclass = Satisfied", fillcolor="#f8fefd"] ;
98 -> 99 ;
100 [label="gini = 0.659\nsamples = 19\nvalue = [0, 5, 9, 1, 4]\nclass = Satisfied", fillcolor="#c6f8ee"] ;
99 -> 100 ;
101 [label="gini = 0.748\nsamples = 19\nvalue = [2, 5, 3, 2, 7]\nclass = Very dissatisfied", fillcolor="#fbe3f6"] ;
99 -> 101 ;
102 [label="gini = 0.727\nsamples = 16\nvalue = [0, 4, 6, 3, 3]\nclass = Satisfied", fillcolor="#defbf5"] ;
98 -> 102 ;
103 [label="Stress_Binned <= 1.084\ngini = 0.663\nsamples = 61\nvalue = [5, 4, 23, 26, 3]\nclass = Very Satisfied", fillcolor="#f0effd"] ;
21 -> 103 ;
104 [label="gini = 0.594\nsamples = 36\nvalue = [2, 1, 14, 18, 1]\nclass = Very Satisfied", fillcolor="#dcdbfa"] ;
103 -> 104 ;
105 [label="gini = 0.733\nsamples = 25\nvalue = [3, 3, 9, 8, 2]\nclass = Satisfied", fillcolor="#f3fdfc"] ;
103 -> 105 ;
106 [label="Workload_Binned <= 2.918\ngini = 0.719\nsamples = 63\nvalue = [4, 19, 8, 7, 25]\nclass = Very dissatisfied", fillcolor="#fbe4f6"] ;
2 -> 106 ;
107 [label="gini = 0.765\nsamples = 20\nvalue = [2, 6, 5, 2, 5]\nclass = Neutral", fillcolor="#f6fdf2"] ;
106 -> 107 ;
108 [label="gini = 0.672\nsamples = 43\nvalue = [2, 13, 3, 5, 20]\nclass = Very dissatisfied", fillcolor="#f9d1f0"] ;
106 -> 108 ;
}